=== Run information ===

Scheme:       weka.classifiers.trees.J48 -C 0.25 -M 2
Relation:     Dataset_buildings_64-weka.filters.unsupervised.instance.imagefilter.ColorLayoutFilter-D/home/sofia/topicos/Dataset_buildings_64-weka.filters.unsupervised.instance.imagefilter.SimpleColorHistogramFilter-D/home/sofia/topicos/Dataset_buildings_64-weka.filters.unsupervised.attribute.Remove-R1
Instances:    64
Attributes:   98
              RGB Color Histogram0
              RGB Color Histogram1
              RGB Color Histogram2
              RGB Color Histogram3
              RGB Color Histogram4
              RGB Color Histogram5
              RGB Color Histogram6
              RGB Color Histogram7
              RGB Color Histogram8
              RGB Color Histogram9
              RGB Color Histogram10
              RGB Color Histogram11
              RGB Color Histogram12
              RGB Color Histogram13
              RGB Color Histogram14
              RGB Color Histogram15
              RGB Color Histogram16
              RGB Color Histogram17
              RGB Color Histogram18
              RGB Color Histogram19
              RGB Color Histogram20
              RGB Color Histogram21
              RGB Color Histogram22
              RGB Color Histogram23
              RGB Color Histogram24
              RGB Color Histogram25
              RGB Color Histogram26
              RGB Color Histogram27
              RGB Color Histogram28
              RGB Color Histogram29
              RGB Color Histogram30
              RGB Color Histogram31
              RGB Color Histogram32
              RGB Color Histogram33
              RGB Color Histogram34
              RGB Color Histogram35
              RGB Color Histogram36
              RGB Color Histogram37
              RGB Color Histogram38
              RGB Color Histogram39
              RGB Color Histogram40
              RGB Color Histogram41
              RGB Color Histogram42
              RGB Color Histogram43
              RGB Color Histogram44
              RGB Color Histogram45
              RGB Color Histogram46
              RGB Color Histogram47
              RGB Color Histogram48
              RGB Color Histogram49
              RGB Color Histogram50
              RGB Color Histogram51
              RGB Color Histogram52
              RGB Color Histogram53
              RGB Color Histogram54
              RGB Color Histogram55
              RGB Color Histogram56
              RGB Color Histogram57
              RGB Color Histogram58
              RGB Color Histogram59
              RGB Color Histogram60
              RGB Color Histogram61
              RGB Color Histogram62
              RGB Color Histogram63
              MPEG-7 Color Layout0
              MPEG-7 Color Layout1
              MPEG-7 Color Layout2
              MPEG-7 Color Layout3
              MPEG-7 Color Layout4
              MPEG-7 Color Layout5
              MPEG-7 Color Layout6
              MPEG-7 Color Layout7
              MPEG-7 Color Layout8
              MPEG-7 Color Layout9
              MPEG-7 Color Layout10
              MPEG-7 Color Layout11
              MPEG-7 Color Layout12
              MPEG-7 Color Layout13
              MPEG-7 Color Layout14
              MPEG-7 Color Layout15
              MPEG-7 Color Layout16
              MPEG-7 Color Layout17
              MPEG-7 Color Layout18
              MPEG-7 Color Layout19
              MPEG-7 Color Layout20
              MPEG-7 Color Layout21
              MPEG-7 Color Layout22
              MPEG-7 Color Layout23
              MPEG-7 Color Layout24
              MPEG-7 Color Layout25
              MPEG-7 Color Layout26
              MPEG-7 Color Layout27
              MPEG-7 Color Layout28
              MPEG-7 Color Layout29
              MPEG-7 Color Layout30
              MPEG-7 Color Layout31
              MPEG-7 Color Layout32
              class
Test mode:    split 70.0% train, remainder test

=== Classifier model (full training set) ===

J48 pruned tree
------------------

RGB Color Histogram21 <= 35: LOW (17.0)
RGB Color Histogram21 > 35
|   RGB Color Histogram0 <= 36: LOW (8.0/1.0)
|   RGB Color Histogram0 > 36
|   |   MPEG-7 Color Layout1 <= 6: LOW (2.0)
|   |   MPEG-7 Color Layout1 > 6
|   |   |   MPEG-7 Color Layout9 <= 18
|   |   |   |   RGB Color Histogram22 <= 0
|   |   |   |   |   RGB Color Histogram17 <= 1: HIGH (7.0/1.0)
|   |   |   |   |   RGB Color Histogram17 > 1: LOW (3.0)
|   |   |   |   RGB Color Histogram22 > 0: HIGH (24.0)
|   |   |   MPEG-7 Color Layout9 > 18: LOW (3.0/1.0)

Number of Leaves  : 	7

Size of the tree : 	13


Time taken to build model: 0 seconds

=== Evaluation on test split ===

Time taken to test model on test split: 0 seconds

=== Summary ===

Correctly Classified Instances          12               63.1579 %
Incorrectly Classified Instances         7               36.8421 %
Kappa statistic                          0.2652
Mean absolute error                      0.3772
Root mean squared error                  0.5936
Relative absolute error                 75.3542 %
Root relative squared error            118.5568 %
Total Number of Instances               19     

=== Detailed Accuracy By Class ===

                 TP Rate  FP Rate  Precision  Recall   F-Measure  MCC      ROC Area  PRC Area  Class
                 0,667    0,400    0,600      0,667    0,632      0,267    0,633     0,558     LOW
                 0,600    0,333    0,667      0,600    0,632      0,267    0,633     0,611     HIGH
Weighted Avg.    0,632    0,365    0,635      0,632    0,632      0,267    0,633     0,586     

=== Confusion Matrix ===

 a b   <-- classified as
 6 3 | a = LOW
 4 6 | b = HIGH

